digraph Tree {
node [shape=box] ;
0 [label="X[1] <= 28777.0\ngini = 0.3047\nsamples = 208\nvalue = [39, 169]"] ;
1 [label="gini = 0.0\nsamples = 2\nvalue = [2, 0]"] ;
0 -> 1 [labeldistance=2.5, labelangle=45, headlabel="True"] ;
2 [label="X[1] <= 58442.5\ngini = 0.2947\nsamples = 206\nvalue = [37, 169]"] ;
0 -> 2 [labeldistance=2.5, labelangle=-45, headlabel="False"] ;
3 [label="X[1] <= 39565.5\ngini = 0.3684\nsamples = 115\nvalue = [28, 87]"] ;
2 -> 3 ;
4 [label="X[1] <= 36412.0\ngini = 0.0799\nsamples = 24\nvalue = [1, 23]"] ;
3 -> 4 ;
5 [label="X[1] <= 34610.5\ngini = 0.2449\nsamples = 7\nvalue = [1, 6]"] ;
4 -> 5 ;
6 [label="gini = 0.0\nsamples = 6\nvalue = [0, 6]"] ;
5 -> 6 ;
7 [label="gini = 0.0\nsamples = 1\nvalue = [1, 0]"] ;
5 -> 7 ;
8 [label="gini = 0.0\nsamples = 17\nvalue = [0, 17]"] ;
4 -> 8 ;
9 [label="X[1] <= 57463.0\ngini = 0.4173\nsamples = 91\nvalue = [27, 64]"] ;
3 -> 9 ;
10 [label="X[1] <= 44362.5\ngini = 0.404\nsamples = 89\nvalue = [25, 64]"] ;
9 -> 10 ;
11 [label="X[0] <= 9885.0\ngini = 0.4978\nsamples = 15\nvalue = [8, 7]"] ;
10 -> 11 ;
12 [label="gini = 0.0\nsamples = 3\nvalue = [0, 3]"] ;
11 -> 12 ;
13 [label="X[0] <= 417422.5\ngini = 0.4444\nsamples = 12\nvalue = [8, 4]"] ;
11 -> 13 ;
14 [label="X[0] <= 39935.5\ngini = 0.3967\nsamples = 11\nvalue = [8, 3]"] ;
13 -> 14 ;
15 [label="X[0] <= 15791.0\ngini = 0.5\nsamples = 4\nvalue = [2, 2]"] ;
14 -> 15 ;
16 [label="gini = 0.0\nsamples = 2\nvalue = [2, 0]"] ;
15 -> 16 ;
17 [label="gini = 0.0\nsamples = 2\nvalue = [0, 2]"] ;
15 -> 17 ;
18 [label="X[1] <= 43534.0\ngini = 0.2449\nsamples = 7\nvalue = [6, 1]"] ;
14 -> 18 ;
19 [label="gini = 0.0\nsamples = 3\nvalue = [3, 0]"] ;
18 -> 19 ;
20 [label="gini = 0.375\nsamples = 4\nvalue = [3, 1]"] ;
18 -> 20 ;
21 [label="gini = 0.0\nsamples = 1\nvalue = [0, 1]"] ;
13 -> 21 ;
22 [label="X[0] <= 46831.5\ngini = 0.3539\nsamples = 74\nvalue = [17, 57]"] ;
10 -> 22 ;
23 [label="X[0] <= 41650.0\ngini = 0.4444\nsamples = 27\nvalue = [9, 18]"] ;
22 -> 23 ;
24 [label="X[1] <= 55782.5\ngini = 0.3512\nsamples = 22\nvalue = [5, 17]"] ;
23 -> 24 ;
25 [label="X[0] <= 25723.5\ngini = 0.255\nsamples = 20\nvalue = [3, 17]"] ;
24 -> 25 ;
26 [label="X[0] <= 12194.5\ngini = 0.375\nsamples = 12\nvalue = [3, 9]"] ;
25 -> 26 ;
27 [label="gini = 0.0\nsamples = 7\nvalue = [0, 7]"] ;
26 -> 27 ;
28 [label="X[0] <= 18888.5\ngini = 0.48\nsamples = 5\nvalue = [3, 2]"] ;
26 -> 28 ;
29 [label="gini = 0.0\nsamples = 2\nvalue = [2, 0]"] ;
28 -> 29 ;
30 [label="X[0] <= 23032.0\ngini = 0.4444\nsamples = 3\nvalue = [1, 2]"] ;
28 -> 30 ;
31 [label="gini = 0.0\nsamples = 2\nvalue = [0, 2]"] ;
30 -> 31 ;
32 [label="gini = 0.0\nsamples = 1\nvalue = [1, 0]"] ;
30 -> 32 ;
33 [label="gini = 0.0\nsamples = 8\nvalue = [0, 8]"] ;
25 -> 33 ;
34 [label="gini = 0.0\nsamples = 2\nvalue = [2, 0]"] ;
24 -> 34 ;
35 [label="X[1] <= 55779.5\ngini = 0.32\nsamples = 5\nvalue = [4, 1]"] ;
23 -> 35 ;
36 [label="gini = 0.0\nsamples = 4\nvalue = [4, 0]"] ;
35 -> 36 ;
37 [label="gini = 0.0\nsamples = 1\nvalue = [0, 1]"] ;
35 -> 37 ;
38 [label="X[1] <= 52069.5\ngini = 0.2825\nsamples = 47\nvalue = [8, 39]"] ;
22 -> 38 ;
39 [label="X[0] <= 383546.5\ngini = 0.3829\nsamples = 31\nvalue = [8, 23]"] ;
38 -> 39 ;
40 [label="X[0] <= 90386.5\ngini = 0.4444\nsamples = 18\nvalue = [6, 12]"] ;
39 -> 40 ;
41 [label="X[1] <= 46463.5\ngini = 0.2188\nsamples = 8\nvalue = [1, 7]"] ;
40 -> 41 ;
42 [label="gini = 0.0\nsamples = 4\nvalue = [0, 4]"] ;
41 -> 42 ;
43 [label="X[1] <= 49586.5\ngini = 0.375\nsamples = 4\nvalue = [1, 3]"] ;
41 -> 43 ;
44 [label="gini = 0.4444\nsamples = 3\nvalue = [1, 2]"] ;
43 -> 44 ;
45 [label="gini = 0.0\nsamples = 1\nvalue = [0, 1]"] ;
43 -> 45 ;
46 [label="X[1] <= 45651.0\ngini = 0.5\nsamples = 10\nvalue = [5, 5]"] ;
40 -> 46 ;
47 [label="gini = 0.0\nsamples = 1\nvalue = [1, 0]"] ;
46 -> 47 ;
48 [label="X[1] <= 46303.5\ngini = 0.4938\nsamples = 9\nvalue = [4, 5]"] ;
46 -> 48 ;
49 [label="gini = 0.0\nsamples = 1\nvalue = [0, 1]"] ;
48 -> 49 ;
50 [label="X[0] <= 171055.0\ngini = 0.5\nsamples = 8\nvalue = [4, 4]"] ;
48 -> 50 ;
51 [label="X[1] <= 50512.5\ngini = 0.48\nsamples = 5\nvalue = [2, 3]"] ;
50 -> 51 ;
52 [label="gini = 0.5\nsamples = 2\nvalue = [1, 1]"] ;
51 -> 52 ;
53 [label="gini = 0.4444\nsamples = 3\nvalue = [1, 2]"] ;
51 -> 53 ;
54 [label="X[0] <= 237602.5\ngini = 0.4444\nsamples = 3\nvalue = [2, 1]"] ;
50 -> 54 ;
55 [label="gini = 0.0\nsamples = 1\nvalue = [1, 0]"] ;
54 -> 55 ;
56 [label="gini = 0.5\nsamples = 2\nvalue = [1, 1]"] ;
54 -> 56 ;
57 [label="X[0] <= 1000881.0\ngini = 0.2604\nsamples = 13\nvalue = [2, 11]"] ;
39 -> 57 ;
58 [label="gini = 0.0\nsamples = 2\nvalue = [0, 2]"] ;
57 -> 58 ;
59 [label="gini = 0.2975\nsamples = 11\nvalue = [2, 9]"] ;
57 -> 59 ;
60 [label="gini = 0.0\nsamples = 16\nvalue = [0, 16]"] ;
38 -> 60 ;
61 [label="gini = 0.0\nsamples = 2\nvalue = [2, 0]"] ;
9 -> 61 ;
62 [label="X[0] <= 639126.5\ngini = 0.1782\nsamples = 91\nvalue = [9, 82]"] ;
2 -> 62 ;
63 [label="X[0] <= 5112.5\ngini = 0.0997\nsamples = 76\nvalue = [4, 72]"] ;
62 -> 63 ;
64 [label="gini = 0.0\nsamples = 1\nvalue = [1, 0]"] ;
63 -> 64 ;
65 [label="X[1] <= 182943.0\ngini = 0.0768\nsamples = 75\nvalue = [3, 72]"] ;
63 -> 65 ;
66 [label="X[0] <= 33888.0\ngini = 0.0533\nsamples = 73\nvalue = [2, 71]"] ;
65 -> 66 ;
67 [label="X[0] <= 29470.5\ngini = 0.1884\nsamples = 19\nvalue = [2, 17]"] ;
66 -> 67 ;
68 [label="X[0] <= 22021.5\ngini = 0.1049\nsamples = 18\nvalue = [1, 17]"] ;
67 -> 68 ;
69 [label="gini = 0.0\nsamples = 12\nvalue = [0, 12]"] ;
68 -> 69 ;
70 [label="X[0] <= 24086.0\ngini = 0.2778\nsamples = 6\nvalue = [1, 5]"] ;
68 -> 70 ;
71 [label="gini = 0.0\nsamples = 1\nvalue = [1, 0]"] ;
70 -> 71 ;
72 [label="gini = 0.0\nsamples = 5\nvalue = [0, 5]"] ;
70 -> 72 ;
73 [label="gini = 0.0\nsamples = 1\nvalue = [1, 0]"] ;
67 -> 73 ;
74 [label="gini = 0.0\nsamples = 54\nvalue = [0, 54]"] ;
66 -> 74 ;
75 [label="X[0] <= 31771.0\ngini = 0.5\nsamples = 2\nvalue = [1, 1]"] ;
65 -> 75 ;
76 [label="gini = 0.0\nsamples = 1\nvalue = [0, 1]"] ;
75 -> 76 ;
77 [label="gini = 0.0\nsamples = 1\nvalue = [1, 0]"] ;
75 -> 77 ;
78 [label="X[1] <= 85900.0\ngini = 0.4444\nsamples = 15\nvalue = [5, 10]"] ;
62 -> 78 ;
79 [label="X[0] <= 663617.5\ngini = 0.32\nsamples = 5\nvalue = [4, 1]"] ;
78 -> 79 ;
80 [label="gini = 0.375\nsamples = 4\nvalue = [3, 1]"] ;
79 -> 80 ;
81 [label="gini = 0.0\nsamples = 1\nvalue = [1, 0]"] ;
79 -> 81 ;
82 [label="X[1] <= 91772.5\ngini = 0.18\nsamples = 10\nvalue = [1, 9]"] ;
78 -> 82 ;
83 [label="gini = 0.0\nsamples = 1\nvalue = [0, 1]"] ;
82 -> 83 ;
84 [label="gini = 0.1975\nsamples = 9\nvalue = [1, 8]"] ;
82 -> 84 ;
}